digraph Tree {
node [shape=box, style="filled", color="black", fontname="helvetica"] ;
edge [fontname="helvetica"] ;
0 [label="TenureMonths <= 12.5\ngini = 0.498\nsamples = 1407\nvalue = [743, 664]\nclass = 유지", fillcolor="#fcf2ea"] ;
1 [label="gini = 0.0\nsamples = 565\nvalue = [0, 565]\nclass = 이탈", fillcolor="#399de5"] ;
0 -> 1 [labeldistance=2.5, labelangle=45, headlabel="True"] ;
2 [label="SatisScore <= 2.5\ngini = 0.208\nsamples = 842\nvalue = [743, 99]\nclass = 유지", fillcolor="#e89253"] ;
0 -> 2 [labeldistance=2.5, labelangle=-45, headlabel="False"] ;
3 [label="gini = 0.0\nsamples = 78\nvalue = [0, 78]\nclass = 이탈", fillcolor="#399de5"] ;
2 -> 3 ;
4 [label="ChurnScore <= 82.5\ngini = 0.053\nsamples = 764\nvalue = [743, 21]\nclass = 유지", fillcolor="#e6853f"] ;
2 -> 4 ;
5 [label="MonthRoamCharge <= 29883.5\ngini = 0.029\nsamples = 754\nvalue = [743, 11]\nclass = 유지", fillcolor="#e5833c"] ;
4 -> 5 ;
6 [label="AvgRoamCharge <= 620.0\ngini = 0.013\nsamples = 748\nvalue = [743, 5]\nclass = 유지", fillcolor="#e5823a"] ;
5 -> 6 ;
7 [label="AvgCharge <= 51937.391\ngini = 0.083\nsamples = 69\nvalue = [66, 3]\nclass = 유지", fillcolor="#e68742"] ;
6 -> 7 ;
8 [label="gini = 0.0\nsamples = 57\nvalue = [57, 0]\nclass = 유지", fillcolor="#e58139"] ;
7 -> 8 ;
9 [label="AvgCharge <= 55430.0\ngini = 0.375\nsamples = 12\nvalue = [9, 3]\nclass = 유지", fillcolor="#eeab7b"] ;
7 -> 9 ;
10 [label="SatisScore <= 3.5\ngini = 0.48\nsamples = 5\nvalue = [2, 3]\nclass = 이탈", fillcolor="#bddef6"] ;
9 -> 10 ;
11 [label="gini = 0.0\nsamples = 3\nvalue = [0, 3]\nclass = 이탈", fillcolor="#399de5"] ;
10 -> 11 ;
12 [label="gini = 0.0\nsamples = 2\nvalue = [2, 0]\nclass = 유지", fillcolor="#e58139"] ;
10 -> 12 ;
13 [label="gini = 0.0\nsamples = 7\nvalue = [7, 0]\nclass = 유지", fillcolor="#e58139"] ;
9 -> 13 ;
14 [label="AvgCharge <= 92727.082\ngini = 0.006\nsamples = 679\nvalue = [677, 2]\nclass = 유지", fillcolor="#e5813a"] ;
6 -> 14 ;
15 [label="gini = 0.0\nsamples = 589\nvalue = [589, 0]\nclass = 유지", fillcolor="#e58139"] ;
14 -> 15 ;
16 [label="AvgCharge <= 92878.332\ngini = 0.043\nsamples = 90\nvalue = [88, 2]\nclass = 유지", fillcolor="#e6843d"] ;
14 -> 16 ;
17 [label="gini = 0.0\nsamples = 1\nvalue = [0, 1]\nclass = 이탈", fillcolor="#399de5"] ;
16 -> 17 ;
18 [label="AvgRoamCharge <= 7965.0\ngini = 0.022\nsamples = 89\nvalue = [88, 1]\nclass = 유지", fillcolor="#e5823b"] ;
16 -> 18 ;
19 [label="AvgRoamCharge <= 7515.0\ngini = 0.165\nsamples = 11\nvalue = [10, 1]\nclass = 유지", fillcolor="#e88e4d"] ;
18 -> 19 ;
20 [label="gini = 0.0\nsamples = 10\nvalue = [10, 0]\nclass = 유지", fillcolor="#e58139"] ;
19 -> 20 ;
21 [label="gini = 0.0\nsamples = 1\nvalue = [0, 1]\nclass = 이탈", fillcolor="#399de5"] ;
19 -> 21 ;
22 [label="gini = 0.0\nsamples = 78\nvalue = [78, 0]\nclass = 유지", fillcolor="#e58139"] ;
18 -> 22 ;
23 [label="gini = 0.0\nsamples = 6\nvalue = [0, 6]\nclass = 이탈", fillcolor="#399de5"] ;
5 -> 23 ;
24 [label="gini = 0.0\nsamples = 10\nvalue = [0, 10]\nclass = 이탈", fillcolor="#399de5"] ;
4 -> 24 ;
}